1.7233129716271625	0.09179133630004378	1.5269684433107298	-2.2852110060137423	-6.38061770992663	-1.54136738007281	-0.08776406036257227	-2.10901586122951	0.42684484276710993	2.4121534960129654	4.4152656764389775	-3.24645705706665	-0.1459584641022882	-2.969504360930251	2.4219794533332535	1.3310250539017765	-0.36864489397575567	-0.9585221726734016	-1.7382051836627965	-4.170330886536296	-0.46745313669401656	-1.2054453361663915	5.391797177031647	-0.27441658553432824	3.5731175666835564	6.634658077540221	-1.0	
-0.06477862196767174	-0.696680645608619	-1.1845751903054103	2.346788703153757	12.677062237068517	-1.8858618494713708	-2.0827869703292	-6.52539308894928	1.8698895557954975	-1.0188084874257335	-3.495450991615822	5.858129384949113	0.05694588178778281	-1.933538735094081	-9.228596013775977	3.1186050401582692	1.6182433351618142	3.153063772250976	6.054091598429153	-0.9182645482176713	6.9948128504649745	2.4798774436225153	-8.517500046075616	0.6132531451074924	-6.119710459564861	-4.168817299548364	2.0	
-2.3988111855401613	0.386193439800106	-1.4260803454718955	1.9755359044720684	0.9801124206317056	3.792072042619061	1.7095220979468797	8.095989652138604	-1.8289593688437549	-2.9967752113798887	-4.299673285625309	0.9211401183356442	0.2516244551579747	6.21128692232445	3.1005374137970394	-4.28592231378644	-0.5983783532462658	-0.6401659137366152	-1.5958500237103759	7.31811004709616	-4.248688332488027	0.09072043042157622	-2.155412585107662	-0.012852107051604434	-1.0877963373314306	-7.257479581421872	1.0	
